-1.98 1.98 -3.96 0.99 -0.99 -1.9799999999999998 0.99 
0.0 1.98 -1.9799999999999998 0.99 0.99 -1.9799999999999998 -0.99 
1.98 0.0 1.98 0.99 0.99 -3.96 -0.99 
0.0 -1.98 0.0 -0.99 4.95 -1.98 -4.95 
-1.9799999999999998 0.0 0.0 -0.99 4.95 0.0 -2.9699999999999998 
-3.96 3.96 -1.98 -2.9699999999999998 -2.9699999999999998 1.98 0.99 
0.0 -1.9799999999999998 1.98 -2.9699999999999998 4.95 1.9799999999999998 0.9899999999999998 
0.0 1.98 -1.98 0.99 0.99 0.0 0.99 
0.0 0.0 3.96 0.99 0.99 -1.98 0.9899999999999998 
1.98 1.98 1.98 0.99 2.9699999999999998 1.9799999999999998 0.99 
3.96 0.0 1.98 0.99 2.9699999999999998 0.0 -0.99 
0.0 1.98 0.0 0.99 -0.99 0.0 4.95 
0.0 -1.9799999999999998 2.220446049250313e-16 0.99 -2.9699999999999998 3.96 0.99 
0.0 5.94 1.9799999999999998 -0.99 2.9699999999999998 0.0 -2.9699999999999998 
0.0 0.0 1.9799999999999998 0.99 0.99 -1.98 0.99 
0.0 1.98 0.0 0.99 0.99 0.0 0.9899999999999998 
1.98 0.0 1.98 0.99 2.9699999999999998 1.9799999999999998 0.99 
1.9799999999999998 1.98 0.0 0.99 -0.99 -1.98 2.9699999999999998 
1.98 0.0 1.98 0.99 0.99 1.9799999999999998 -0.99 
0.0 1.98 0.0 -0.99 0.99 5.94 0.99 
0.0 3.96 0.0 2.9699999999999998 -2.9699999999999998 -1.98 -0.99 
0.0 0.0 1.9799999999999998 0.99 0.99 -1.98 0.99 
0.0 1.98 0.0 0.99 0.99 0.0 0.9899999999999998 
1.9799999999999998 1.9799999999999998 0.0 0.99 -0.9899999999999998 -1.98 0.99 
1.98 3.96 1.98 -0.99 2.9699999999999998 1.9799999999999998 -0.99 
3.96 1.9799999999999998 1.98 0.99 2.9699999999999998 0.0 -2.9699999999999998 
0.0 3.96 0.0 -0.99 -0.99 5.94 0.99 
0.0 1.9799999999999998 -1.9799999999999998 2.9699999999999998 -0.9899999999999998 0.0 -0.99 
0.0 0.0 1.9799999999999998 0.99 0.99 -1.98 0.99 
-1.98 0.0 -3.96 0.99 -0.99 -1.9799999999999998 0.99 
1.98 3.96 0.0 -0.99 0.9899999999999998 -3.96 -0.99 
0.0 3.96 0.0 -0.99 6.930000000000001 0.0 -0.99 
1.98 3.96 0.0 0.99 4.95 -1.98 -4.95 
-1.9799999999999998 3.96 -1.9799999999999998 -0.99 -2.9699999999999998 3.96 -0.99 
1.98 0.0 0.0 2.9699999999999998 0.9899999999999998 1.9799999999999998 0.99 
0.0 0.0 1.9799999999999998 0.99 0.99 -1.98 0.99 
1.98 0.0 0.0 0.99 0.99 -1.98 -0.99 
1.9799999999999998 0.0 0.0 0.99 0.99 1.9799999999999998 2.9699999999999998 
3.96 0.0 1.98 -0.99 0.9899999999999998 0.0 2.9699999999999998 
3.96 0.0 1.98 0.99 2.9699999999999998 1.9799999999999998 0.99 
1.98 0.0 0.0 -0.99 0.99 3.96 -0.99 
0.0 3.96 -1.9799999999999998 2.9699999999999998 -2.9699999999999998 0.0 -0.99 
0.0 -1.98 1.9799999999999998 0.99 0.99 -1.98 0.99 
0.0 1.98 -1.9799999999999998 -0.99 -0.99 1.98 -0.99 
1.98 1.98 1.98 0.99 2.9699999999999998 0.0 -0.99 
0.0 1.98 0.0 0.99 0.99 0.0 0.99 
1.98 1.98 1.98 0.99 -2.9699999999999998 -1.98 0.99 
1.98 1.98 0.0 -0.99 0.99 3.96 -0.99 
0.0 1.9799999999999998 0.0 2.9699999999999998 -2.9699999999999998 -1.98 -0.99 
0.0 0.0 -1.98 0.99 0.99 0.0 0.99 
0.0 0.0 1.98 -0.99 -0.99 0.0 -0.99 
1.98 1.98 1.98 0.99 2.9699999999999998 1.9799999999999998 0.99 
1.98 1.98 1.98 0.99 2.9699999999999998 1.9799999999999998 0.99 
0.0 1.98 0.0 0.99 0.99 1.9799999999999998 2.9699999999999998 
1.98 -1.9799999999999998 2.220446049250313e-16 0.99 -4.95 0.0 0.99 
0.0 3.96 1.9799999999999998 -0.99 2.9699999999999998 0.0 -2.9699999999999998 
0.0 0.0 -3.96 0.99 -0.99 -1.9799999999999998 0.99 
1.98 0.0 -1.9799999999999998 0.99 0.99 -3.96 -2.9699999999999998 
0.0 0.0 0.0 -0.99 -0.99 0.0 -0.99 
-1.9799999999999998 0.0 0.0 -0.99 4.95 1.98 -2.9699999999999998 
0.0 0.0 0.0 -0.99 4.95 1.98 -2.9699999999999998 
0.0 1.9799999999999998 -2.220446049250313e-16 -0.99 -0.99 -3.96 -0.99 
3.96 -1.98 1.98 -0.99 6.930000000000001 0.0 0.9899999999999998 
-1.98 -1.98 -1.98 -0.99 -2.9699999999999998 -1.9799999999999998 -0.99 -0.99 1.9799999999999998 -0.99 0.99 0.0 -1.98 1.98 
-0.99 0.0 -4.95 0.99 1.9799999999999998 0.0 0.0 
0.99 -1.98 2.9699999999999998 2.9699999999999998 -1.98 -3.96 0.0 
0.99 -1.98 0.99 -0.99 1.98 -1.98 -3.96 
-2.9699999999999998 -1.98 -0.99 -0.99 1.98 -2.220446049250313e-16 -1.98 
-0.99 3.96 -0.9900000000000002 -0.99 0.0 0.0 1.98 
-0.99 -1.98 0.9899999999999998 -2.9699999999999998 3.96 1.9799999999999998 0.0 
-0.99 1.98 -2.9699999999999998 0.99 0.0 0.0 1.98 
0.99 -3.96 6.930000000000001 0.99 0.0 -1.98 0.0 
2.9699999999999998 1.98 2.9699999999999998 0.99 1.98 1.9799999999999998 0.0 
4.95 0.0 0.99 2.9699999999999998 1.98 1.9799999999999998 0.0 
-0.99 0.0 2.9699999999999998 0.99 0.0 0.0 3.96 
-0.99 -3.96 0.9900000000000002 0.99 -1.98 3.96 -1.98 
-0.99 3.96 4.95 -0.99 1.9799999999999998 0.0 -1.98 
-0.99 -1.9799999999999998 4.95 0.99 3.96 0.0 0.0 
-0.99 0.0 -0.99 0.99 0.0 0.0 1.98 
2.9699999999999998 1.98 2.9699999999999998 0.99 1.98 1.9799999999999998 0.0 
0.9899999999999998 1.98 0.99 0.99 0.0 -1.9799999999999998 1.98 
2.9699999999999998 0.0 2.9699999999999998 0.99 1.9799999999999998 1.9799999999999998 0.0 
-0.99 1.98 -0.99 -0.99 0.0 5.94 0.0 
-0.99 3.96 2.9699999999999998 0.99 -1.9799999999999998 -1.98 -1.98 
-0.99 -1.98 4.95 0.99 3.96 -1.98 0.0 
-0.99 0.0 0.9899999999999998 0.99 -1.98 0.0 1.98 
0.99 1.9799999999999998 -2.9699999999999998 2.9699999999999998 0.0 -1.9799999999999998 1.98 
0.99 1.9799999999999998 0.9899999999999998 -0.99 3.96 1.9799999999999998 0.0 
4.95 3.96 0.9899999999999998 0.99 0.0 0.0 -1.9799999999999998 
0.99 3.96 -2.9699999999999998 -0.99 -1.9799999999999998 5.94 0.0 
-0.99 0.0 -0.9899999999999998 2.9699999999999998 0.0 0.0 0.0 
0.99 1.98 4.95 0.99 0.0 0.0 -1.98 
-0.99 0.0 -2.9699999999999998 0.99 0.0 -3.96 3.96 
0.99 1.9799999999999998 -0.99 0.99 -1.98 -3.96 0.0 
-0.99 1.9799999999999998 4.95 -0.99 5.94 0.0 0.0 
0.99 3.96 0.99 -0.99 5.94 0.0 0.0 
-0.9899999999999998 5.94 2.9699999999999998 -0.99 -1.9799999999999998 1.9799999999999998 0.0 
0.99 1.98 0.99 0.99 0.0 1.9799999999999998 -1.98 
-0.99 0.0 2.9699999999999998 0.99 1.98 -1.98 1.98 
0.99 0.0 -0.99 0.99 0.0 -1.9799999999999998 0.0 
2.9699999999999998 1.98 0.99 0.99 1.98 1.9799999999999998 1.98 
0.99 3.96 2.9699999999999998 -0.99 0.0 0.0 1.98 
4.95 1.98 2.9699999999999998 0.99 1.98 1.9799999999999998 0.0 
2.9699999999999998 1.98 2.9699999999999998 0.99 1.98 1.98 -1.9799999999999998 
-0.99 1.98 -2.9699999999999998 2.9699999999999998 -1.9799999999999998 0.0 0.0 
0.99 3.96 4.95 0.99 0.0 -1.98 0.0 
-0.99 0.0 -2.9699999999999998 -0.99 -1.98 0.0 0.0 
-0.99 3.96 0.99 0.99 3.96 0.0 -1.9799999999999998 
0.9899999999999998 1.98 0.99 0.99 1.98 0.0 0.0 
0.99 1.98 2.9699999999999998 0.99 -1.98 0.0 1.98 
0.99 1.98 -0.99 -0.99 -1.9799999999999998 1.98 0.0 
0.99 3.96 -0.9899999999999998 2.9699999999999998 -1.9799999999999998 0.0 -1.98 
0.99 1.98 -2.9699999999999998 -0.99 3.96 0.0 0.0 
0.99 -1.98 4.95 0.99 0.0 -1.98 0.0 
0.99 0.0 -0.99 2.9699999999999998 1.98 0.0 1.98 
0.99 1.9799999999999998 2.9699999999999998 0.99 0.0 0.0 0.0 
-2.9699999999999998 0.0 0.99 -0.99 0.0 3.96 1.98 
0.99 -3.96 -0.9899999999999998 0.99 -1.9799999999999998 3.96 0.0 
0.99 1.9799999999999998 2.9699999999999998 -0.99 3.96 1.9799999999999998 0.0 
2.9699999999999998 3.96 -0.99 0.99 -1.9799999999999998 -1.9799999999999998 0.0 
0.99 0.0 -4.95 0.99 0.0 -1.98 1.98 
0.99 -1.98 -2.9699999999999998 -0.99 0.0 -2.220446049250313e-16 0.0 
-0.9899999999999998 0.0 -0.99 -0.99 0.0 1.9799999999999998 -1.98 
-0.99 -1.98 -0.99 -0.99 1.98 0.0 -3.96 
0.99 3.96 0.9899999999999998 -0.99 0.0 -1.98 1.98 
4.95 0.0 0.99 -0.99 3.96 -1.9799999999999998 0.0 
-0.99 -1.98 -2.9699999999999998 -0.99 -1.98 -1.9799999999999998 0.0 