-0.6 0.6 -1.2 0.3 -0.3 -0.5999999999999999 0.3 
0.0 0.6 -0.5999999999999999 0.3 0.3 -0.5999999999999999 -0.3 
0.6 0.0 0.6 0.3 0.3 -1.2 -0.3 
0.0 -0.6 0.0 -0.3 1.5 -0.6 -1.5 
-0.5999999999999999 0.0 0.0 -0.3 1.5 0.0 -0.8999999999999999 
-1.2 1.2 -0.6 -0.8999999999999999 -0.8999999999999999 0.6 0.3 
0.0 -0.5999999999999999 0.6 -0.8999999999999999 1.5 0.5999999999999999 0.2999999999999999 
0.0 0.6 -0.6 0.3 0.3 0.0 0.3 
0.0 0.0 1.2 0.3 0.3 -0.6 0.2999999999999999 
0.6 0.6 0.6 0.3 0.8999999999999999 0.5999999999999999 0.3 
1.2 0.0 0.6 0.3 0.8999999999999999 0.0 -0.3 
0.0 0.6 0.0 0.3 -0.3 0.0 1.5 
0.0 -0.5999999999999999 1.1102230246251565e-16 0.3 -0.8999999999999999 1.2 0.3 
0.0 1.8 0.5999999999999999 -0.3 0.8999999999999999 0.0 -0.8999999999999999 
0.0 0.0 0.5999999999999999 0.3 0.3 -0.6 0.3 
0.0 0.6 0.0 0.3 0.3 0.0 0.2999999999999999 
0.6 0.0 0.6 0.3 0.8999999999999999 0.5999999999999999 0.3 
0.5999999999999999 0.6 0.0 0.3 -0.3 -0.6 0.8999999999999999 
0.6 0.0 0.6 0.3 0.3 0.5999999999999999 -0.3 
0.0 0.6 0.0 -0.3 0.3 1.8 0.3 
0.0 1.2 0.0 0.8999999999999999 -0.8999999999999999 -0.6 -0.3 
0.0 0.0 0.5999999999999999 0.3 0.3 -0.6 0.3 
0.0 0.6 0.0 0.3 0.3 0.0 0.2999999999999999 
0.5999999999999999 0.5999999999999999 0.0 0.3 -0.2999999999999999 -0.6 0.3 
0.6 1.2 0.6 -0.3 0.8999999999999999 0.5999999999999999 -0.3 
1.2 0.5999999999999999 0.6 0.3 0.8999999999999999 0.0 -0.8999999999999999 
0.0 1.2 0.0 -0.3 -0.3 1.8 0.3 
0.0 0.5999999999999999 -0.5999999999999999 0.8999999999999999 -0.2999999999999999 0.0 -0.3 
0.0 0.0 0.5999999999999999 0.3 0.3 -0.6 0.3 
-0.6 0.0 -1.2 0.3 -0.3 -0.5999999999999999 0.3 
0.6 1.2 0.0 -0.3 0.2999999999999999 -1.2 -0.3 
0.0 1.2 0.0 -0.3 2.1 0.0 -0.3 
0.6 1.2 0.0 0.3 1.5 -0.6 -1.5 
-0.5999999999999999 1.2 -0.5999999999999999 -0.3 -0.8999999999999999 1.2 -0.3 
0.6 0.0 0.0 0.8999999999999999 0.2999999999999999 0.5999999999999999 0.3 
0.0 0.0 0.5999999999999999 0.3 0.3 -0.6 0.3 
0.6 0.0 0.0 0.3 0.3 -0.6 -0.3 
0.5999999999999999 0.0 0.0 0.3 0.3 0.5999999999999999 0.8999999999999999 
1.2 0.0 0.6 -0.3 0.2999999999999999 0.0 0.8999999999999999 
1.2 0.0 0.6 0.3 0.8999999999999999 0.5999999999999999 0.3 
0.6 0.0 0.0 -0.3 0.3 1.2 -0.3 
0.0 1.2 -0.5999999999999999 0.8999999999999999 -0.8999999999999999 0.0 -0.3 
0.0 -0.6 0.5999999999999999 0.3 0.3 -0.6 0.3 
0.0 0.6 -0.5999999999999999 -0.3 -0.3 0.6 -0.3 
0.6 0.6 0.6 0.3 0.8999999999999999 0.0 -0.3 
0.0 0.6 0.0 0.3 0.3 0.0 0.3 
0.6 0.6 0.6 0.3 -0.8999999999999999 -0.6 0.3 
0.6 0.6 0.0 -0.3 0.3 1.2 -0.3 
0.0 0.5999999999999999 0.0 0.8999999999999999 -0.8999999999999999 -0.6 -0.3 
0.0 0.0 -0.6 0.3 0.3 0.0 0.3 
0.0 0.0 0.6 -0.3 -0.3 0.0 -0.3 
0.6 0.6 0.6 0.3 0.8999999999999999 0.5999999999999999 0.3 
0.6 0.6 0.6 0.3 0.8999999999999999 0.5999999999999999 0.3 
0.0 0.6 0.0 0.3 0.3 0.5999999999999999 0.8999999999999999 
0.6 -0.5999999999999999 1.1102230246251565e-16 0.3 -1.5 0.0 0.3 
0.0 1.2 0.5999999999999999 -0.3 0.8999999999999999 0.0 -0.8999999999999999 
0.0 0.0 -1.2 0.3 -0.3 -0.5999999999999999 0.3 
0.6 0.0 -0.5999999999999999 0.3 0.3 -1.2 -0.8999999999999999 
0.0 0.0 0.0 -0.3 -0.3 0.0 -0.3 
-0.5999999999999999 0.0 0.0 -0.3 1.5 0.6 -0.8999999999999999 
0.0 0.0 0.0 -0.3 1.5 0.6 -0.8999999999999999 
0.0 0.5999999999999999 -1.1102230246251565e-16 -0.3 -0.3 -1.2 -0.3 
1.2 -0.6 0.6 -0.3 2.1 0.0 0.2999999999999999 
-0.6 -0.6 -0.6 -0.3 -0.8999999999999999 -0.5999999999999999 -0.3 